<?xml version="1.0"?>
<opencv_storage>
<opencv_ml_svm>
  <format>3</format>
  <svmType>NU_SVR</svmType>
  <kernel>
    <type>RBF</type>
    <gamma>2.2500000000000003e-03</gamma></kernel>
  <C>6.2500000000000000e+01</C>
  <nu>8.9999999999999997e-02</nu>
  <term_criteria><epsilon>1.0000000000000000e-03</epsilon></term_criteria>
  <var_count>15</var_count>
  <sv_total>17</sv_total>
  <support_vectors>
    <_>
      0. 2.56729990e-01 1.60703003e-01 1.04694001e-01 1.11437000e-01
      4.73595001e-02 1.88871007e-02 2.55219992e-02 3.91256018e-03
      6.76595978e-03 1.56404004e-02 1.43368002e-02 1.94367003e-02
      1.22084999e-02 7.23187020e-03</_>
    <_>
      0. 2.99333006e-01 1.34953007e-01 9.69116986e-02 1.31102994e-01
      5.70693016e-02 3.66934016e-02 5.05443988e-03 6.03131019e-03
      5.62294014e-03 1.67929996e-02 1.87606004e-03 1.70053001e-02
      6.48838980e-03 2.17177998e-02</_>
    <_>
      0. 2.78313011e-01 5.53979017e-02 1.52698994e-01 6.37661964e-02
      9.30152982e-02 1.69114992e-02 3.57142985e-02 1.35971997e-02
      1.02918996e-02 2.20078994e-02 1.44392997e-02 1.42382002e-02
      1.83476005e-02 6.40972005e-03</_>
    <_>
      0. 1.67732000e-01 1.36333004e-01 9.26631987e-02 1.62532002e-01
      8.94296020e-02 6.96645975e-02 9.67578031e-03 5.67755988e-03
      2.21295003e-02 2.73666997e-02 1.21536003e-02 2.18027998e-02
      1.19463000e-02 7.18430011e-03</_>
    <_>
      0. 2.26560995e-01 1.03984997e-01 1.31937996e-01 1.41102001e-01
      7.14413971e-02 4.16201986e-02 1.86221004e-02 7.72944978e-03
      2.21539997e-02 1.15607996e-02 2.18710992e-02 1.31743001e-02
      3.63286003e-03 1.58750992e-02</_>
    <_>
      0. 2.82523990e-01 1.98996007e-01 1.44575000e-01 4.18700986e-02
      6.83498010e-02 9.22987014e-02 2.28285994e-02 3.77097987e-02
      2.30068993e-02 5.43774012e-03 2.33133007e-02 9.72913019e-03
      8.09151027e-03 1.57450996e-02</_>
    <_>
      0. 3.51814002e-01 6.06252998e-02 1.57648996e-01 8.60368013e-02
      6.84472024e-02 4.84276004e-02 3.90538992e-03 2.06780992e-02
      3.42972018e-02 8.35323986e-03 3.05585992e-02 7.78718991e-03
      2.31746994e-02 1.30342003e-02</_>
    <_>
      0. 3.88588995e-01 3.72936010e-01 2.95466006e-01 2.39814997e-01
      2.58612007e-01 3.30374002e-01 1.29978001e-01 5.25791012e-02
      4.37101014e-02 8.60299021e-02 6.44181967e-02 2.80510001e-02
      4.79134992e-02 2.88947001e-02</_>
    <_>
      0. 3.04933995e-01 4.02534008e-01 6.06797993e-01 6.00831985e-01
      8.55274022e-01 2.15445995e-01 1.83521003e-01 1.41488001e-01
      6.95962980e-02 1.85646996e-01 2.83601005e-02 6.49745017e-02
      4.53867018e-02 7.14923963e-02</_>
    <_>
      0. 5.23881018e-01 9.11836982e-01 4.73998994e-01 3.15277010e-01
      5.05863011e-01 6.64864004e-01 2.06504002e-01 1.70355007e-01
      6.15679994e-02 5.87486997e-02 8.38998035e-02 6.51386976e-02
      1.18308000e-01 1.23276003e-02</_>
    <_>
      0. 2.27835000e-01 6.28441989e-01 6.67209983e-01 1.99559003e-01
      9.48518991e-01 4.64742005e-01 6.72475025e-02 7.86854029e-02
      1.50930002e-01 8.17029998e-02 1.04618996e-01 1.18634000e-01
      4.95399982e-02 1.79417003e-02</_>
    <_>
      0. 5.59889019e-01 4.46763992e-01 2.61025012e-01 9.60471034e-02
      4.13352996e-01 2.41345003e-01 1.28647998e-01 9.29720998e-02
      7.56663978e-02 5.25236018e-02 5.74155003e-02 5.76644987e-02
      1.55199999e-02 2.51182001e-02</_>
    <_>
      0. 6.08105004e-01 4.72764999e-01 3.34921002e-01 2.98763990e-01
      5.48964977e-01 2.43230999e-01 1.81214005e-01 6.60282969e-02
      5.53832985e-02 9.31119025e-02 1.23722002e-01 1.96097996e-02
      2.33632997e-02 1.74989998e-02</_>
    <_>
      0. 5.92481971e-01 5.21360993e-01 3.39872986e-01 2.22296000e-01
      4.35157001e-01 3.21574986e-01 1.85946003e-01 4.71218005e-02
      3.17352004e-02 1.04002997e-01 9.37037989e-02 3.65418009e-02
      5.59732988e-02 2.07260996e-02</_>
    <_>
      0. 4.72317994e-01 7.41503000e-01 4.00523007e-01 1.55405998e-01
      5.86260021e-01 5.09662986e-01 1.21168002e-01 1.34047002e-01
      9.20777991e-02 2.39266995e-02 7.93071985e-02 8.28465968e-02
      8.16949010e-02 3.17126997e-02</_>
    <_>
      0. 2.01340005e-01 6.28211021e-01 6.06658995e-01 1.85308993e-01
      8.29882979e-01 4.13282007e-01 8.11507031e-02 5.02364002e-02
      1.35891005e-01 7.29926974e-02 1.16883002e-01 7.75948018e-02
      2.92879995e-02 3.88124995e-02</_>
    <_>
      0. 5.31536996e-01 7.63924003e-01 3.56864989e-01 2.74163008e-01
      4.99020994e-01 5.00373006e-01 1.17684998e-01 1.73250005e-01
      6.11800998e-02 7.61511996e-02 5.50108999e-02 4.12219018e-02
      6.89757019e-02 2.76241004e-02</_></support_vectors>
  <decision_functions>
    <_>
      <sv_count>17</sv_count>
      <rho>-2.4038170427083969e+00</rho>
      <alpha>
        -6.2500000000000000e+01 -1. -1. -4.7750000000000000e+01
        -6.1500000000000000e+01 -6.1500000000000000e+01 -1.
        6.1500000000000000e+01 5.9500000000000000e+01 1. 1. 1.
        6.1500000000000000e+01 4.7750000000000000e+01 1. 1. 1.</alpha></_></decision_functions></opencv_ml_svm>
</opencv_storage>
